### conv1_weight (shape=(8, 11, 3, 3)) ###
[[[[ 19.421387  -9.453125   9.171387]
   [ 14.046387  -9.203125  17.921387]
   [ -6.453125   6.796875   1.421387]]

  [[  3.921875   8.296387  19.171875]
   [ 10.546387  13.796875  -5.328125]
   [  8.546387   8.671387   5.296387]]

  [[  0.547363  -6.701660  -1.703125]
   [  8.046387  -0.702637  -8.578125]
   [ -9.578125   8.296875  14.171387]]

  [[  4.546387   4.171387   6.796875]
   [ 14.921387  13.671387  11.171875]
   [ 10.421875   7.921387   3.171875]]

  [[  0.421875   0.046875   5.296875]
   [  7.671875  15.921875  17.046387]
   [ -2.078613   6.671875  -9.203613]]

  [[-11.078125  -6.953125  -1.578125]
   [-11.578125  16.921387  11.671387]
   [  1.046875  17.921387   8.796387]]

  [[ 12.671387  -8.329102  17.046875]
   [ -6.828125  11.296875  -7.827637]
   [ 13.171387   1.171387   7.046387]]

  [[ -4.827637  13.047363  -5.454102]
   [  2.921387  -3.578125   1.670898]
   [ -2.953125   5.171875   1.672363]]

  [[ 12.421387  -1.953613   3.046875]
   [  4.796387   5.046387  11.046387]
   [  9.171387  -1.703613  -1.953613]]

  [[ -5.453613  19.668457 -11.827148]
   [ -2.826660  -0.328125  -7.701172]
   [ -3.453125   2.171387  19.794922]]

  [[ -0.328613   2.671387   5.421387]
   [  7.421387  -7.828613 -11.328125]
   [ 10.546387   8.421387  -2.703125]]]


 [[[ -8.578125   9.296387  -9.828125]
   [ -1.203125  -4.078125   9.921387]
   [ 10.546387 -11.328125   8.421875]]

  [[ 19.921875  -1.453125  15.171875]
   [-11.578125   6.296387   9.671875]
   [ 16.546387 -11.953613  -6.828125]]

  [[  9.921387   9.547363   4.921875]
   [-11.078125  13.171387  10.046387]
   [ -2.701660  10.045898  -8.953125]]

  [[ -1.203125   8.046875  12.421387]
   [ 11.170898  19.546387   4.546875]
   [  9.045410   0.171387   6.420898]]

  [[  5.296875 -11.703125   3.921875]
   [ 19.171387  -3.203613   3.796875]
   [ -7.953125  -6.453125   8.671875]]

  [[  9.921875  -6.703613   5.046875]
   [ 10.296387   4.671387   5.046875]
   [  8.671387  -8.703125   2.796875]]

  [[-11.328125   9.171387  -1.203125]
   [ 15.046387  -9.828125   6.296875]
   [  7.045410  18.671387   8.171387]]

  [[ 10.544434  -1.703125  -7.828613]
   [  5.546387   2.670898  15.044922]
   [  6.672363  -2.704102   8.545898]]

  [[  0.671387   4.796387  -1.828613]
   [ 16.671387   6.046875 -11.078125]
   [  4.046387  -5.703125  18.671387]]

  [[  6.799316  10.796387  -1.702637]
   [  4.547363   4.172852  11.923828]
   [ 12.668457  10.797852  18.297363]]

  [[  0.921875   4.796387  -7.328613]
   [ -5.078125   0.546875  11.171387]
   [  3.921875   5.046387   1.171387]]]


 [[[ -6.577637  16.421875 -10.578125]
   [  7.421387  -4.202637  -0.203125]
   [ 12.296875   5.671387  -1.203125]]

  [[ -5.952637  19.046875  -9.452637]
   [  3.046387  -1.577637  -1.327637]
   [  8.171387  12.296875   0.546875]]

  [[ -9.204102   3.671387   6.046875]
   [ -3.204102  -5.953613  10.546875]
   [ 15.796875  13.171875  -8.077637]]

  [[ 15.796387  -3.328125  -6.828125]
   [  1.422363   4.921875   2.421875]
   [  2.421387   4.421875  -6.702637]]

  [[  9.422363  10.172363  -1.202637]
   [ 10.796875   5.797363  -9.827637]
   [  7.671875  10.671875   9.672363]]

  [[ -4.078125   3.046875  17.796875]
   [ -6.578125  -1.577637  -6.328125]
   [ -6.202637  -7.452637  -4.453125]]

  [[  6.546875  -5.452637   2.047363]
   [ -2.328125 -10.953125  -4.827637]
   [  9.171875 -10.577637   4.046875]]

  [[  1.922363   7.546875   1.047363]
   [  3.921875  -7.202637  14.796875]
   [ -6.078613  -7.952637  -9.077637]]

  [[-11.078125   8.421387  13.671875]
   [  0.171875   0.296875  -0.203613]
   [ -4.828125  -2.578125   5.421875]]

  [[ -5.328125 -11.327637  -9.828125]
   [ -0.828613  10.671875   3.546875]
   [ 12.670410  13.422363  -4.702637]]

  [[ 19.296875  18.046875   7.671875]
   [ -3.328125   9.921387  -3.828613]
   [  9.671387  -0.453613  -9.328125]]]


 [[[  8.796875  15.796387 -10.203125]
   [ 14.046387  10.546387  11.171387]
   [ 13.546387   3.796875   4.546387]]

  [[ 18.421875  -0.953125   9.671875]
   [ 14.671387  14.671387 -11.578125]
   [ -6.953613  17.421387  -4.453125]]

  [[ 12.547852  16.672363  13.046387]
   [-10.578613  -7.578613   3.171387]
   [ 19.045898   6.921387  -6.452637]]

  [[ 13.421387   7.921387   1.921875]
   [  3.921875 -11.828125   9.296875]
   [  1.546387  10.796387  16.921387]]

  [[ 14.296387  14.921387   4.796387]
   [ 12.421387  -0.078125   4.921387]
   [ 13.171875   5.296875  18.671387]]

  [[ 19.670898  15.546387   1.546875]
   [ -0.453125  13.046387  -2.328125]
   [  1.296875 -11.453125   5.795898]]

  [[ -7.079590  -7.078125   2.796875]
   [  4.046875  19.171387  -0.578125]
   [  7.546875  -2.703125  -2.954102]]

  [[ 10.047363  -7.328125  13.045898]
   [-11.080078 -11.455078   4.669922]
   [ 14.420410   7.420898   4.672363]]

  [[  2.671387   2.296387 -10.453125]
   [  5.546875   5.421387   5.046875]
   [  8.046875  -6.203125  -5.203613]]

  [[ 16.793945   5.546875   9.422852]
   [ -1.200684 -10.575684   9.173828]
   [ -2.076660   6.297852  11.918945]]

  [[ 16.046387  -0.078613  -9.078125]
   [  9.296387  -2.453125  -0.328613]
   [  5.421875   5.046387   3.546875]]]


 [[[ -5.453125 -11.828125 -10.578125]
   [ -3.579102  18.671387  -7.328125]
   [ 18.046387  14.546875   7.796875]]

  [[ 17.420898 -10.327637 -10.952637]
   [ 18.170898   4.297363  -0.077148]
   [  1.172363  14.671875  12.171875]]

  [[  4.296875  16.169434   7.045898]
   [  1.547363  -3.830566   7.794922]
   [ -2.577637   5.296875  10.297363]]

  [[  0.796875  13.296875   8.421875]
   [ -8.578125   4.796387   4.296875]
   [  3.671875  -3.453125  17.421875]]

  [[ -2.203125  18.296387   2.546387]
   [-11.078125  -8.453125 -10.828125]
   [ 14.171387  12.921875  10.671875]]

  [[  8.921875 -10.703613  -4.453613]
   [ 17.420898   6.296387  17.421387]
   [ 18.546387  -8.828125   4.296387]]

  [[ 17.546875  -3.828613  -2.953613]
   [ 15.420410   3.920898  16.170898]
   [ 13.546387  17.795898   2.170898]]

  [[ 16.671387  17.921875  -8.452637]
   [-10.203125   2.297363   2.297363]
   [-11.826660  -6.327148   6.548340]]

  [[  0.171875  -3.203613  -5.453125]
   [  0.921875  16.421387   9.171387]
   [ -7.203125   6.046387   9.296387]]

  [[ 16.922363  -4.951660  13.173340]
   [  1.673828   2.548828   0.922852]
   [ 11.547363  14.172852  17.547363]]

  [[ -8.453125 -11.578125  14.796387]
   [ 12.171387 -11.078125   8.171387]
   [ 18.921387  18.796387  17.046387]]]


 [[[ 14.296387  19.421387  14.796387]
   [ -7.703125   1.921875  11.796387]
   [ -8.578125  -6.453125   2.296875]]

  [[ -2.828125  17.421875  -0.202637]
   [  8.796875  16.171387  18.921875]
   [ 19.171387  -9.078125  -4.703125]]

  [[ 18.922852  18.171875 -10.077148]
   [ 13.797363  -0.951172  -4.077637]
   [ 16.297852  -6.578613 -10.953125]]

  [[  5.546387  19.296387  10.921875]
   [ 11.546387   8.796875   6.296387]
   [ 10.921875   0.796875  -3.328125]]

  [[ -6.578125   4.796875 -10.578125]
   [  6.421875   9.046875   4.796875]
   [ -9.078125  -8.078125  -7.453125]]

  [[ -5.328613  -3.203125  12.296387]
   [ 16.671387   7.670410  -1.828613]
   [  9.795898   1.671875   4.796875]]

  [[  4.295898  -0.203613   8.545898]
   [ -6.078125  14.419434  10.671387]
   [-10.829590  11.671875  -2.953125]]

  [[ -2.827637   4.796387  -1.203125]
   [ 18.796387  18.172363  -7.953125]
   [  5.797852  12.545410  -1.078613]]

  [[  0.671875  14.046387  14.046387]
   [  3.921875   3.296387  -6.828125]
   [  9.296387   2.921387   0.921387]]

  [[ -1.080566  15.046387   9.920898]
   [  9.421387  17.417969  -4.078613]
   [ -3.081055   7.173828 -11.827148]]

  [[ 14.546387  13.046387  15.921387]
   [ -7.328125  -8.203125  -2.953125]
   [ -2.078125  13.671387  17.546387]]]


 [[[ -1.953125  -1.453125  10.671387]
   [-10.828125   4.921387   2.046387]
   [  6.546387  -8.453125  -9.203125]]

  [[ 14.796875  -8.952637 -10.452637]
   [ 15.421387  19.296387   4.171875]
   [ -1.453613  19.671387   1.921875]]

  [[-11.077148  14.297363  -6.452148]
   [ -0.451172  -2.578613   7.296875]
   [  8.297363   5.296875  18.671875]]

  [[ 16.045898 -10.202637  -5.328125]
   [ 19.421387  15.671875  -5.578125]
   [ 17.920898  -1.078613   2.796875]]

  [[ 13.796387  -4.953125   7.921875]
   [ 14.296387  -0.578125  13.296387]
   [  5.795898  -4.328125 -11.078613]]

  [[ 17.795898   6.921875  12.295898]
   [ -2.204102  -0.078613  14.171387]
   [ -1.828613  -8.578613  15.170898]]

  [[  0.171387 -11.578125   2.670410]
   [ -8.705078  -9.578125  -0.828613]
   [ 14.670898  15.046387  12.795898]]

  [[  8.546875  13.546387 -11.327148]
   [-10.952637  12.045410  14.421875]
   [ 17.546875  -6.203125   5.797852]]

  [[  2.546387  -2.078613 -11.203125]
   [  4.171387   7.171875  12.671387]
   [  6.421387  -5.453125 -10.828125]]

  [[ 18.045898  -0.953125  -5.831055]
   [ -7.456055   5.548828  18.921387]
   [ 18.669434  18.421387  -3.331055]]

  [[ -5.703125  -9.828125  -0.828613]
   [ 15.546875   6.421387   6.296387]
   [  1.546875   5.796387  11.171387]]]


 [[[ -7.453125  14.796387  -3.203125]
   [ 17.546387   9.046387 -11.453125]
   [  1.171387   5.546875  -0.578125]]

  [[  7.421875   2.546875   4.171875]
   [  7.796875  -2.078613   7.796875]
   [  1.295898  -1.828125  -8.828125]]

  [[  9.297363  -9.328125   7.046387]
   [  5.796875   8.423340   7.547852]
   [ 18.170410  -6.078613  11.421875]]

  [[  2.296387 -11.828125   2.046875]
   [  8.296387  10.921387  15.171387]
   [ 18.796875  19.296387  -1.703125]]

  [[ 11.796875 -11.578125  13.046387]
   [  3.297363   8.796387  15.421875]
   [ -0.203613  10.921875  17.671387]]

  [[ -9.453125  -5.953125  -2.453125]
   [  9.171875 -10.078613   5.921387]
   [ 13.547363  -1.078125   2.421387]]

  [[  7.296875   5.796875  -9.328125]
   [ -7.328125  13.795410 -10.454590]
   [ 18.046875  -4.078125   7.796387]]

  [[  5.671387  11.170898  14.920410]
   [  6.670898   0.797363 -11.827148]
   [ -6.953613  14.420410  17.672363]]

  [[  1.796387  -0.953125  16.671387]
   [  1.421387  11.046387   8.921875]
   [-10.578125  -4.703613  18.171387]]

  [[ 13.796875  19.422852  18.798340]
   [ 18.421875  -5.332031   5.793945]
   [  2.923340  16.423340   9.169434]]

  [[ 12.171387  -5.328125   0.671875]
   [ 13.796387  -9.328125  11.171875]
   [  5.671387  -2.453125  -3.328125]]]]

### conv1_bias (shape=(8,)) ###
[  7.296387  -9.078125  12.421387   6.796875 -10.703125   2.671387  -1.328125   1.421387]

### conv2_weight (shape=(16, 8, 3, 3)) ###
[[[[ 11.297363 -11.702148  10.547852]
   [-10.327148  11.422363  13.422852]
   [  9.672363  19.547363  12.922363]]

  [[ -6.327637  -7.703125  -8.577637]
   [ -5.953125   6.172363   1.922363]
   [ 10.921875   0.796875  15.171875]]

  [[ 10.670898   9.546387   7.421387]
   [ -7.078613 -11.328613  -8.453613]
   [ -0.328613  -5.078125  13.921387]]

  ...

  [[ -5.952148  -7.077637  -0.702637]
   [ 18.672852  11.172852   7.047363]
   [ 13.672852  17.047852  17.297363]]

  [[ -9.828125  11.172363  15.797363]
   [ -4.952637  -8.952637  -0.328125]
   [ 13.671387  -1.578125  10.921387]]

  [[ 19.172852  14.546875   8.547852]
   [  0.796875  15.671875   9.046875]
   [  5.921875   9.297363  -1.953125]]]


 [[[ 14.547363  17.422852  -2.952148]
   [  0.672852   1.422852   3.047363]
   [ 19.672363   2.922852  -8.327637]]

  [[-11.452148  13.422363  14.422363]
   [ 11.422363  15.297363  -7.578125]
   [  0.797363  -5.452637  17.546875]]

  [[  8.670898  13.420898  10.796387]
   [ 11.045898   2.171387  13.921387]
   [-11.328613  -1.453613  18.170898]]

  ...

  [[ 17.172852   6.922852  17.672852]
   [-11.326660  -8.452148  17.546875]
   [ -5.577148  11.922852  16.921875]]

  [[ 16.546875  12.547363  14.171875]
   [  3.922363  16.546387  -9.078125]
   [ -4.078125  -9.327637  13.921875]]

  [[ -8.951660  -2.452637   6.047363]
   [-11.077148   7.547363  -5.827148]
   [ -1.952148 -11.202148  18.297363]]]


 [[[ 16.547852  -9.451660  16.047852]
   [ 11.422852   2.922363   5.172363]
   [  5.422363   3.672363  11.922363]]

  [[  1.547363  -4.952148   8.171875]
   [ 12.422363   3.297363   3.671875]
   [ 14.922363  15.046875   4.422363]]

  [[ 17.420898   1.420898   8.296387]
   [  3.296387  11.796387  13.921387]
   [ 16.171387  15.296387  -7.953125]]

  ...

  [[  3.173340 -10.951660  10.297363]
   [  1.047852   9.172852   4.047852]
   [  2.172363   9.047852  12.547852]]

  [[ 10.922363 -10.577148  12.546875]
   [  7.421875  -8.327637   3.922363]
   [  2.922363  16.796875  18.172363]]

  [[  1.797852  19.297363  19.922852]
   [-11.451660  16.922852 -11.201660]
   [ 11.297363  -6.702637   4.922852]]]


 ...


 [[[  0.922852  19.172852  -2.952637]
   [  4.672852   1.047363   6.172363]
   [  4.171875  13.671875   8.421875]]

  [[ -3.078125  -5.202637   6.171875]
   [ -8.828125  19.171387  13.046875]
   [ 19.921875   2.047363  16.921875]]

  [[  1.171875  -3.578125  -3.078125]
   [ 19.296387 -10.453613  -8.578125]
   [ 17.921387  -6.078125   3.796875]]

  ...

  [[ -2.452148   0.048340 -10.326660]
   [ -8.701660   5.672852  -8.826660]
   [ -4.702148   8.672852  -9.077148]]

  [[ -0.202637  13.171875  16.797363]
   [ -0.952637 -11.452637  13.046875]
   [  4.547363   2.796875   7.297363]]

  [[ -4.952148  -7.452637   2.297363]
   [ -9.452148  13.297363   6.547852]
   [ 10.172363   3.796875   8.297363]]]


 [[[ -5.702148  15.672852   7.172363]
   [  1.672852   4.172852   7.547363]
   [  9.421875   8.671875  -4.327637]]

  [[-10.702148  -4.703125  19.922363]
   [ -2.702637  -9.203125   6.922363]
   [  1.171875   4.672363   4.796875]]

  [[ 11.545898   5.796387  16.545898]
   [ -0.828613  19.170898  -4.453125]
   [ -7.828613   4.046387  -9.578125]]

  ...

  [[ -7.577148 -10.701660  -6.701660]
   [ -9.326660  10.797852  13.547363]
   [ 14.047363  15.547852   8.047852]]

  [[ -5.828125  -4.202637  -2.577637]
   [ 10.546875  -3.202637  -5.577637]
   [ 19.421387  -3.953125  11.171875]]

  [[ -0.702637  18.672852  14.922852]
   [  6.297852   8.422852   8.172852]
   [  6.047852  -2.077637  16.922363]]]


 [[[-11.701660   6.547363  -0.577148]
   [ -4.327148  10.922363   9.672363]
   [  6.797363   9.047363  12.046875]]

  [[ -8.952148   4.546875   6.297363]
   [ 15.422363  11.047363  13.671875]
   [ 16.796875   9.546875 -10.702637]]

  [[ 12.170898  -7.328613  12.295898]
   [ 16.295898  11.171387 -10.828613]
   [-11.328125  11.545898  -0.703125]]

  ...

  [[-10.826660   9.422363   7.922852]
   [-11.076660  -8.077148   4.797363]
   [-11.951660  17.047363  -0.952637]]

  [[  2.546875  -8.078125   5.797363]
   [ 14.796387  18.421387   5.171875]
   [  7.171387   2.046875  12.046875]]

  [[ -3.577148  10.172852   0.922363]
   [-10.327148  -7.202148   4.672363]
   [ 13.421875  -8.952148  14.422363]]]]

### conv2_bias (shape=(16,)) ###
[ 17.421387   1.921875   3.671387  19.046387   4.046875   9.922363  10.171387   5.421875  19.546387   7.796387
 -10.703125   9.546875   3.921387  10.796387   7.921387   9.796875]

### conv3_weight (shape=(16, 16, 3, 3)) ###
[[[[  3.422363  12.297363   3.672363]
   [-11.327148   5.422363  13.796875]
   [ -7.702637   7.297363  -6.952637]]

  [[  1.547363  -4.327637  17.172363]
   [ -7.077637   0.047363   9.671875]
   [  1.672363  10.171875   0.796875]]

  [[ -4.952148   8.922363   7.172852]
   [  7.047363   2.547852   5.672852]
   [  4.547363  -6.952148  -6.827637]]

  ...

  [[ -5.452637   5.296875   4.297363]
   [  3.297363   6.672363   9.047363]
   [ 11.921875   0.297363  -5.577637]]

  [[ 15.797363  18.047363  12.547363]
   [ 18.922363   1.672852   9.922363]
   [ -6.327148  -9.327148  -6.452637]]

  [[ 12.671875   2.672363   3.547363]
   [  5.672363   4.047363   7.172363]
   [  2.546875  13.921875   5.046875]]]


 [[[ -4.702637   2.422852  -0.327637]
   [ 16.046875  -5.452637  10.296875]
   [ 14.171875  13.047363 -11.327637]]

  [[ 10.547363  -6.702637  -2.827637]
   [ 11.296875  13.296875   7.297363]
   [ 11.796875  -4.452637   1.921875]]

  [[ -7.076660 -10.701660 -10.952148]
   [  5.297852  18.047852   5.547852]
   [  2.547852  -3.577148  15.922363]]

  ...

  [[  2.171875  13.421875   8.421875]
   [ -8.077637   2.296875   1.547363]
   [ -6.203125  17.671875  -4.828125]]

  [[  8.172852  10.422363  10.547363]
   [  8.297852   0.797363   8.547363]
   [ -1.202637   1.547363 -10.702637]]

  [[ -4.202637  10.547363   1.172363]
   [ -9.952637   2.546875  -3.203125]
   [  1.172363  -9.703125 -11.203125]]]


 [[[  6.547363   3.797363  14.671875]
   [ 17.422363   7.547363  -4.952637]
   [ 18.296875  -5.202637   8.671875]]

  [[ 14.171875   1.796875  14.796875]
   [ 19.671387  -2.703125   4.921875]
   [ 13.921387  19.046387   7.171875]]

  [[ 10.421875  16.296875   3.546387]
   [ 11.921875  13.421387  11.421875]
   [  7.172363  18.171875  13.172363]]

  ...

  [[ 14.671387   8.421387  16.296387]
   [  9.046387  -7.328613  10.671387]
   [ 16.796387   3.296875  -5.452637]]

  [[ -8.827637 -10.328125  13.296387]
   [ -8.452637   3.921875  -5.452637]
   [ -4.703125   5.171875  13.421875]]

  [[  9.921875  15.671875   7.421875]
   [ 11.796875   1.421875   2.171875]
   [ 16.296875  -9.203125   9.796875]]]


 ...


 [[[ -5.702637  18.921387  10.546875]
   [ 11.296875  15.171875 -10.078125]
   [-10.828125   5.546387   2.295898]]

  [[ 19.296875   3.796875  16.296387]
   [ -5.328125  11.921875  11.921875]
   [ -6.454102   6.170410  -0.830078]]

  [[ 18.671875   2.421875  11.296387]
   [ 12.797363  -9.952637   0.171875]
   [ 11.297852  -1.077148   0.922363]]

  ...

  [[  1.547363  19.921875  -4.702637]
   [  1.296875  -2.952637  -6.828125]
   [ 10.046875 -11.202637  -2.828613]]

  [[  7.421875  -2.953125  -9.202637]
   [-11.452148 -11.452637   7.297363]
   [  2.547852  -9.452637  19.921387]]

  [[ -2.328125   3.921875  -7.453125]
   [  9.671875  15.046387   8.171387]
   [ -7.204102  -1.704102   5.919922]]]


 [[[ -8.203613  11.046387   0.170898]
   [ 16.420898  14.045898  11.171387]
   [ -4.453613   0.421387 -10.078125]]

  [[  8.796387  -0.453613 -10.203125]
   [ 18.171387  11.046387  18.546387]
   [  4.046875   5.671875  17.171387]]

  [[ 15.171387  -9.328125 -10.453613]
   [ -3.203125  10.921387 -10.328613]
   [ 17.920898   5.921387   9.295898]]

  ...

  [[ 15.546387  15.421875  -1.078125]
   [ -8.327637  -3.702637  10.296875]
   [ 18.546387   0.421875  14.046875]]

  [[  5.296387  17.920898  14.295898]
   [ -1.203613 -10.953613  11.421387]
   [ 17.170898  19.921387   3.171387]]

  [[ 19.671387  -4.953125   1.421387]
   [  9.421387   6.796875 -11.453125]
   [ -8.578125  18.046387  14.546875]]]


 [[[  1.420898   6.046387  -2.703613]
   [ 13.545898   9.796387  -4.453613]
   [ -0.953613   4.170898   5.295898]]

  [[  6.546387  -3.328613  -6.578125]
   [ -6.453613  -3.703125   2.671387]
   [ -3.328613 -10.703125  15.171387]]

  [[ 17.795898  10.171387  10.795898]
   [ -9.828613  -6.453613   3.671387]
   [ 14.546387  13.670898  -8.078613]]

  ...

  [[ 13.046387  -5.828125 -11.828125]
   [ -6.452637  11.171875  -4.703125]
   [ 19.546875  13.296875   2.546875]]

  [[ 16.921387 -11.578613  18.170898]
   [  6.046387   1.546387  19.171387]
   [ -1.578613   8.796387  12.921387]]

  [[ 13.171387   6.421387  18.796387]
   [  5.171875  18.296875  19.671875]
   [  3.421387   7.921387  19.921387]]]]

### conv3_bias (shape=(16,)) ###
[ 1.046875 -5.328125 -5.953613  2.296387 -7.078125  3.297852 19.921387  5.296387 19.047363 -4.703613 -0.703613
  1.546387  1.421387  2.546387  4.047363 -1.577637]

### fc1_weight (shape=(64, 16)) ###
[[  9.796875  -2.203125   7.047852 ...   5.294922  14.044922  11.046387]
 [ -1.329102  -9.077637  -5.329102 ...   8.296387   2.922363  14.797363]
 [ -8.453613  13.045898  -4.202637 ...  -2.078613  17.546387  -0.579102]
 ...
 [ -4.702637   0.796387  -7.954102 ...  13.421387   0.171875 -10.828613]
 [-11.828613  12.921875  17.296875 ...  -6.829102  13.421387  -2.703125]
 [ -9.328613   8.420898  -3.329102 ...   1.920898  -3.453613   6.546387]]

### fc1_bias (shape=(64,)) ###
[ -4.577637  18.671875  12.546387  15.672363  13.796387  -4.452637  11.295898  -8.328125 -10.954102  -7.953613
  -7.203125  -4.078613  18.545898  -8.204102  -7.202148   8.546875   1.422852  12.796875   9.672852  -1.327637
  -4.828613   4.171875  -7.202637  10.295898   6.797363  18.921875  -1.578613 -11.452637  15.171387   4.796387
  -5.578125   5.297363   1.295898   4.920898  -5.828125  -5.579102  -9.080078  11.546875  15.171387   0.671875
  -0.329102  -0.079102  -4.953125  12.046387  13.296387   6.045898   1.795898   7.047363   9.672852   8.172363
   1.297852  -7.953613  10.796875  -5.327637 -10.952637  16.421387  -9.329102  11.297363  17.421387  17.421875
 -11.953125  15.045898 -10.202637  -6.079102]

### fc2_weight (shape=(5, 64)) ###
[[  2.296875   7.421387   2.046387  -2.952637   1.671875  -4.953125  -5.328613   3.171875  12.546387  11.296387
    2.796875   1.046875   9.796387   1.421387   9.173340  -7.703125   4.420898   4.796387  16.047363   1.047363
    8.171387  -3.452637 -11.577637  16.421387  13.671875  15.046387   4.671875  -8.203125  11.296387  -6.452637
   11.796875  -2.328125  -4.578613  -1.703125  -2.702637  10.796875   4.922852   3.671875   6.296875  -3.577637
   18.171875  -6.828125  -9.078125  -2.202637  14.796875  10.296875  -6.702637  11.421875  -6.704102   1.046875
   -0.578613   0.046875  10.796875  -5.827637   8.170898  18.296387   0.171387  -6.703125   0.671387  10.546875
    3.546875  -8.703125   7.171387   6.296875]
 [ -5.953125  12.796387  -1.828613   0.047363  18.671387 -11.703125  15.171387  -3.953125   8.796387   2.671387
    4.046875  12.671875   2.546875   0.046387   7.172852  -4.578125   8.670898  -0.203613   8.422363   4.921875
    8.671387  -0.827637 -10.452637   1.796875  -9.078125   8.296387  -1.078613  -5.327637   9.171875   9.421875
   13.921387  15.421387  14.546387   2.296875  -6.578125   1.797363  -4.952148   1.797363  -3.828125   1.422363
   -5.203125   3.296387  -1.828125  -5.202637  11.296875  19.796387   4.047363  16.296875  13.670898   3.046875
   -8.203613  19.546387  10.421387  -5.703125  19.796387   2.421387  -8.328125  11.796387   2.421387   5.171387
   -3.202637  -8.203125  15.046875   1.546387]
 [  1.422363  10.920898  -6.453125  -1.328125  15.296387  -4.702637   8.421387 -10.702637   9.546387  11.171387
    5.421387   4.796387  -1.953125   6.671875  -2.326660  14.671387   7.420898   2.171387   5.297852  -1.702637
   -0.453125   2.546875  -7.953125  -8.578125  16.171875   7.546875  11.671875   1.172363  10.421387   1.547363
   12.921387  14.296875  -4.453125   3.171875  12.171875   4.922363  -8.327148  -6.702637  17.046387  -1.828125
    7.296875  -3.703125  -0.203613   4.922363 -10.328125 -10.703125  19.421875  14.421387  -2.704102  -6.202637
    0.046387   2.921875   9.921387  17.796875   4.670898  -9.703125  16.921387  15.171387   0.296387   7.296387
    7.296875  -3.453613  -0.078125  -4.828125]
 [  5.047363  19.045898  19.421387   4.796875   6.796875  -7.827637  12.796875  19.671875   9.796387   8.671387
   11.046387   1.671387   3.046387   3.296875  14.422852  -1.953613  10.170898  16.671387  -9.327148   3.796875
   12.296875  12.171875   6.796875  12.046875  12.171875  -6.828125  -2.578613  16.671875  -5.453613  19.046875
    6.546387  -8.328613  -5.203125  11.296875  -9.702637  -6.952637   2.672852  17.421875  15.171387   1.797363
   15.421875   0.921387  -7.203125  15.296875  -7.202637   1.796875  -0.953125  -2.453125  -8.828613  17.046387
   17.045898   5.421875   6.546387   5.046875  -6.828613  13.421387  13.296387  19.921387  -0.578125  -6.578125
   -6.702637  12.546875  -8.953125  17.171387]
 [ -2.453125 -11.953613  18.171387   7.546875  18.171387  13.796387  -5.703125   5.421875  -1.453125  -6.453125
   14.296387   8.671875  -2.703613 -11.203125   2.173340  -0.578613   6.920898  16.671387  -8.952148  -6.077637
    9.171387 -10.577637   8.796875  -4.953125   6.671875   0.171875  -9.078125   1.547363   1.171387  -8.453125
   -5.203125   1.671875  16.046387  -6.578125  -1.203125   8.421875   6.797852  -1.577637  -2.828613  -3.952637
   -6.077637 -11.453125   9.921387  -1.578125  11.921875   4.671387  19.046875  16.671875  -8.453613  12.171875
   12.170898  -7.328125   5.296387  18.796387   6.545898  10.671875  10.671387  10.171387  12.046387  12.171875
    7.547363  -4.453125  -0.578125  10.171875]]

### fc2_bias (shape=(5,)) ###
[ 19.046387  -3.953125  19.296387  -6.078125 -10.203125]

